digraph Tree {
node [shape=box, style="filled, rounded", color="black", fontname="helvetica"] ;
edge [fontname="helvetica"] ;
0 [label="rh <= 0.908\ngini = 0.5\nsamples = 224917\nvalue = [112458.5, 112458.5]\nclass = Niebla", fillcolor="#ffffff"] ;
1 [label="rh <= 0.76\ngini = 0.362\nsamples = 176125\nvalue = [91797.988, 28512.753]\nclass = No niebla", fillcolor="#eda876"] ;
0 -> 1 [labeldistance=2.5, labelangle=45, headlabel="True"] ;
2 [label="gini = 0.235\nsamples = 110662\nvalue = [58226.915, 9165.419]\nclass = No niebla", fillcolor="#e99558"] ;
1 -> 2 ;
3 [label="gini = 0.464\nsamples = 65463\nvalue = [33571.074, 19347.335]\nclass = No niebla", fillcolor="#f4caab"] ;
1 -> 3 ;
4 [label="rh <= 0.964\ngini = 0.317\nsamples = 48792\nvalue = [20660.512, 83945.747]\nclass = Niebla", fillcolor="#6ab5eb"] ;
0 -> 4 [labeldistance=2.5, labelangle=-45, headlabel="False"] ;
5 [label="gini = 0.434\nsamples = 32667\nvalue = [15299.045, 32824.396]\nclass = Niebla", fillcolor="#95cbf1"] ;
4 -> 5 ;
6 [label="gini = 0.172\nsamples = 16125\nvalue = [5361.467, 51121.35]\nclass = Niebla", fillcolor="#4ea7e8"] ;
4 -> 6 ;
}